digraph Tree {
node [shape=box] ;
0 [label="duration <= 205.5\ngini = 0.5\nsamples = 7933\nvalue = [3924, 4009]"] ;
1 [label="poutcome <= 1.5\ngini = 0.347\nsamples = 3131\nvalue = [2431, 700]"] ;
0 -> 1 [labeldistance=2.5, labelangle=45, headlabel="True"] ;
2 [label="month <= 9.5\ngini = 0.293\nsamples = 2920\nvalue = [2400, 520]"] ;
1 -> 2 ;
3 [label="housing <= 0.5\ngini = 0.266\nsamples = 2804\nvalue = [2362, 442]"] ;
2 -> 3 ;
4 [label="duration <= 124.5\ngini = 0.373\nsamples = 1389\nvalue = [1045, 344]"] ;
3 -> 4 ;
5 [label="month <= 0.5\ngini = 0.205\nsamples = 732\nvalue = [647, 85]"] ;
4 -> 5 ;
6 [label="day <= 23.5\ngini = 0.498\nsamples = 43\nvalue = [23, 20]"] ;
5 -> 6 ;
7 [label="duration <= 103.5\ngini = 0.496\nsamples = 35\nvalue = [16, 19]"] ;
6 -> 7 ;
8 [label="gini = 0.444\nsamples = 15\nvalue = [10, 5]"] ;
7 -> 8 ;
9 [label="gini = 0.42\nsamples = 20\nvalue = [6, 14]"] ;
7 -> 9 ;
10 [label="age <= 24.5\ngini = 0.219\nsamples = 8\nvalue = [7, 1]"] ;
6 -> 10 ;
11 [label="gini = 0.0\nsamples = 1\nvalue = [0, 1]"] ;
10 -> 11 ;
12 [label="gini = 0.0\nsamples = 7\nvalue = [7, 0]"] ;
10 -> 12 ;
13 [label="duration <= 77.5\ngini = 0.171\nsamples = 689\nvalue = [624, 65]"] ;
5 -> 13 ;
14 [label="previous <= 6.0\ngini = 0.039\nsamples = 299\nvalue = [293, 6]"] ;
13 -> 14 ;
15 [label="gini = 0.033\nsamples = 297\nvalue = [292, 5]"] ;
14 -> 15 ;
16 [label="gini = 0.5\nsamples = 2\nvalue = [1, 1]"] ;
14 -> 16 ;
17 [label="age <= 70.5\ngini = 0.257\nsamples = 390\nvalue = [331, 59]"] ;
13 -> 17 ;
18 [label="gini = 0.248\nsamples = 387\nvalue = [331, 56]"] ;
17 -> 18 ;
19 [label="gini = 0.0\nsamples = 3\nvalue = [0, 3]"] ;
17 -> 19 ;
20 [label="month <= 0.5\ngini = 0.478\nsamples = 657\nvalue = [398, 259]"] ;
4 -> 20 ;
21 [label="duration <= 132.5\ngini = 0.323\nsamples = 69\nvalue = [14, 55]"] ;
20 -> 21 ;
22 [label="campaign <= 1.5\ngini = 0.469\nsamples = 8\nvalue = [5, 3]"] ;
21 -> 22 ;
23 [label="gini = 0.375\nsamples = 4\nvalue = [1, 3]"] ;
22 -> 23 ;
24 [label="gini = 0.0\nsamples = 4\nvalue = [4, 0]"] ;
22 -> 24 ;
25 [label="contact <= 0.5\ngini = 0.252\nsamples = 61\nvalue = [9, 52]"] ;
21 -> 25 ;
26 [label="gini = 0.212\nsamples = 58\nvalue = [7, 51]"] ;
25 -> 26 ;
27 [label="gini = 0.444\nsamples = 3\nvalue = [2, 1]"] ;
25 -> 27 ;
28 [label="pdays <= 24.0\ngini = 0.453\nsamples = 588\nvalue = [384, 204]"] ;
20 -> 28 ;
29 [label="age <= 61.5\ngini = 0.414\nsamples = 498\nvalue = [352, 146]"] ;
28 -> 29 ;
30 [label="gini = 0.386\nsamples = 467\nvalue = [345, 122]"] ;
29 -> 30 ;
31 [label="gini = 0.35\nsamples = 31\nvalue = [7, 24]"] ;
29 -> 31 ;
32 [label="month <= 7.5\ngini = 0.458\nsamples = 90\nvalue = [32, 58]"] ;
28 -> 32 ;
33 [label="gini = 0.39\nsamples = 64\nvalue = [17, 47]"] ;
32 -> 33 ;
34 [label="gini = 0.488\nsamples = 26\nvalue = [15, 11]"] ;
32 -> 34 ;
35 [label="month <= 3.5\ngini = 0.129\nsamples = 1415\nvalue = [1317, 98]"] ;
3 -> 35 ;
36 [label="pdays <= 354.5\ngini = 0.31\nsamples = 250\nvalue = [202, 48]"] ;
35 -> 36 ;
37 [label="age <= 60.5\ngini = 0.294\nsamples = 246\nvalue = [202, 44]"] ;
36 -> 37 ;
38 [label="duration <= 145.5\ngini = 0.272\nsamples = 240\nvalue = [201, 39]"] ;
37 -> 38 ;
39 [label="gini = 0.188\nsamples = 171\nvalue = [153, 18]"] ;
38 -> 39 ;
40 [label="gini = 0.423\nsamples = 69\nvalue = [48, 21]"] ;
38 -> 40 ;
41 [label="day <= 13.5\ngini = 0.278\nsamples = 6\nvalue = [1, 5]"] ;
37 -> 41 ;
42 [label="gini = 0.5\nsamples = 2\nvalue = [1, 1]"] ;
41 -> 42 ;
43 [label="gini = 0.0\nsamples = 4\nvalue = [0, 4]"] ;
41 -> 43 ;
44 [label="gini = 0.0\nsamples = 4\nvalue = [0, 4]"] ;
36 -> 44 ;
45 [label="day <= 5.5\ngini = 0.082\nsamples = 1165\nvalue = [1115, 50]"] ;
35 -> 45 ;
46 [label="duration <= 101.5\ngini = 0.252\nsamples = 108\nvalue = [92, 16]"] ;
45 -> 46 ;
47 [label="gini = 0.0\nsamples = 42\nvalue = [42, 0]"] ;
46 -> 47 ;
48 [label="balance <= 416.5\ngini = 0.367\nsamples = 66\nvalue = [50, 16]"] ;
46 -> 48 ;
49 [label="gini = 0.121\nsamples = 31\nvalue = [29, 2]"] ;
48 -> 49 ;
50 [label="gini = 0.48\nsamples = 35\nvalue = [21, 14]"] ;
48 -> 50 ;
51 [label="pdays <= 473.0\ngini = 0.062\nsamples = 1057\nvalue = [1023, 34]"] ;
45 -> 51 ;
52 [label="balance <= 11942.0\ngini = 0.061\nsamples = 1056\nvalue = [1023, 33]"] ;
51 -> 52 ;
53 [label="gini = 0.056\nsamples = 1047\nvalue = [1017, 30]"] ;
52 -> 53 ;
54 [label="gini = 0.444\nsamples = 9\nvalue = [6, 3]"] ;
52 -> 54 ;
55 [label="gini = 0.0\nsamples = 1\nvalue = [0, 1]"] ;
51 -> 55 ;
56 [label="duration <= 77.0\ngini = 0.441\nsamples = 116\nvalue = [38, 78]"] ;
2 -> 56 ;
57 [label="gini = 0.0\nsamples = 15\nvalue = [15, 0]"] ;
56 -> 57 ;
58 [label="day <= 15.5\ngini = 0.352\nsamples = 101\nvalue = [23, 78]"] ;
56 -> 58 ;
59 [label="balance <= 527.5\ngini = 0.48\nsamples = 30\nvalue = [12, 18]"] ;
58 -> 59 ;
60 [label="gini = 0.0\nsamples = 6\nvalue = [6, 0]"] ;
59 -> 60 ;
61 [label="pdays <= 158.5\ngini = 0.375\nsamples = 24\nvalue = [6, 18]"] ;
59 -> 61 ;
62 [label="balance <= 2124.5\ngini = 0.298\nsamples = 22\nvalue = [4, 18]"] ;
61 -> 62 ;
63 [label="gini = 0.0\nsamples = 14\nvalue = [0, 14]"] ;
62 -> 63 ;
64 [label="gini = 0.5\nsamples = 8\nvalue = [4, 4]"] ;
62 -> 64 ;
65 [label="gini = 0.0\nsamples = 2\nvalue = [2, 0]"] ;
61 -> 65 ;
66 [label="pdays <= 683.0\ngini = 0.262\nsamples = 71\nvalue = [11, 60]"] ;
58 -> 66 ;
67 [label="campaign <= 1.5\ngini = 0.245\nsamples = 70\nvalue = [10, 60]"] ;
66 -> 67 ;
68 [label="duration <= 123.5\ngini = 0.153\nsamples = 48\nvalue = [4, 44]"] ;
67 -> 68 ;
69 [label="gini = 0.42\nsamples = 10\nvalue = [3, 7]"] ;
68 -> 69 ;
70 [label="gini = 0.051\nsamples = 38\nvalue = [1, 37]"] ;
68 -> 70 ;
71 [label="day <= 29.5\ngini = 0.397\nsamples = 22\nvalue = [6, 16]"] ;
67 -> 71 ;
72 [label="gini = 0.32\nsamples = 20\nvalue = [4, 16]"] ;
71 -> 72 ;
73 [label="gini = 0.0\nsamples = 2\nvalue = [2, 0]"] ;
71 -> 73 ;
74 [label="gini = 0.0\nsamples = 1\nvalue = [1, 0]"] ;
66 -> 74 ;
75 [label="duration <= 136.5\ngini = 0.251\nsamples = 211\nvalue = [31, 180]"] ;
1 -> 75 ;
76 [label="pdays <= 99.5\ngini = 0.417\nsamples = 71\nvalue = [21, 50]"] ;
75 -> 76 ;
77 [label="day <= 3.5\ngini = 0.257\nsamples = 33\nvalue = [5, 28]"] ;
76 -> 77 ;
78 [label="previous <= 3.5\ngini = 0.444\nsamples = 6\nvalue = [4, 2]"] ;
77 -> 78 ;
79 [label="gini = 0.0\nsamples = 4\nvalue = [4, 0]"] ;
78 -> 79 ;
80 [label="gini = 0.0\nsamples = 2\nvalue = [0, 2]"] ;
78 -> 80 ;
81 [label="pdays <= 76.5\ngini = 0.071\nsamples = 27\nvalue = [1, 26]"] ;
77 -> 81 ;
82 [label="campaign <= 1.5\ngini = 0.444\nsamples = 3\nvalue = [1, 2]"] ;
81 -> 82 ;
83 [label="gini = 0.0\nsamples = 1\nvalue = [1, 0]"] ;
82 -> 83 ;
84 [label="gini = 0.0\nsamples = 2\nvalue = [0, 2]"] ;
82 -> 84 ;
85 [label="gini = 0.0\nsamples = 24\nvalue = [0, 24]"] ;
81 -> 85 ;
86 [label="job <= 0.5\ngini = 0.488\nsamples = 38\nvalue = [16, 22]"] ;
76 -> 86 ;
87 [label="gini = 0.0\nsamples = 7\nvalue = [7, 0]"] ;
86 -> 87 ;
88 [label="month <= 2.5\ngini = 0.412\nsamples = 31\nvalue = [9, 22]"] ;
86 -> 88 ;
89 [label="age <= 54.0\ngini = 0.469\nsamples = 8\nvalue = [5, 3]"] ;
88 -> 89 ;
90 [label="gini = 0.0\nsamples = 4\nvalue = [4, 0]"] ;
89 -> 90 ;
91 [label="pdays <= 174.5\ngini = 0.375\nsamples = 4\nvalue = [1, 3]"] ;
89 -> 91 ;
92 [label="gini = 0.0\nsamples = 1\nvalue = [1, 0]"] ;
91 -> 92 ;
93 [label="gini = 0.0\nsamples = 3\nvalue = [0, 3]"] ;
91 -> 93 ;
94 [label="housing <= 0.5\ngini = 0.287\nsamples = 23\nvalue = [4, 19]"] ;
88 -> 94 ;
95 [label="gini = 0.0\nsamples = 16\nvalue = [0, 16]"] ;
94 -> 95 ;
96 [label="marital <= 1.5\ngini = 0.49\nsamples = 7\nvalue = [4, 3]"] ;
94 -> 96 ;
97 [label="gini = 0.375\nsamples = 4\nvalue = [1, 3]"] ;
96 -> 97 ;
98 [label="gini = 0.0\nsamples = 3\nvalue = [3, 0]"] ;
96 -> 98 ;
99 [label="pdays <= 83.5\ngini = 0.133\nsamples = 140\nvalue = [10, 130]"] ;
75 -> 99 ;
100 [label="balance <= 326.5\ngini = 0.444\nsamples = 9\nvalue = [3, 6]"] ;
99 -> 100 ;
101 [label="day <= 26.0\ngini = 0.375\nsamples = 4\nvalue = [3, 1]"] ;
100 -> 101 ;
102 [label="gini = 0.0\nsamples = 3\nvalue = [3, 0]"] ;
101 -> 102 ;
103 [label="gini = 0.0\nsamples = 1\nvalue = [0, 1]"] ;
101 -> 103 ;
104 [label="gini = 0.0\nsamples = 5\nvalue = [0, 5]"] ;
100 -> 104 ;
105 [label="pdays <= 183.5\ngini = 0.101\nsamples = 131\nvalue = [7, 124]"] ;
99 -> 105 ;
106 [label="age <= 75.0\ngini = 0.04\nsamples = 98\nvalue = [2, 96]"] ;
105 -> 106 ;
107 [label="balance <= 5981.5\ngini = 0.021\nsamples = 96\nvalue = [1, 95]"] ;
106 -> 107 ;
108 [label="gini = 0.0\nsamples = 90\nvalue = [0, 90]"] ;
107 -> 108 ;
109 [label="balance <= 6965.5\ngini = 0.278\nsamples = 6\nvalue = [1, 5]"] ;
107 -> 109 ;
110 [label="gini = 0.0\nsamples = 1\nvalue = [1, 0]"] ;
109 -> 110 ;
111 [label="gini = 0.0\nsamples = 5\nvalue = [0, 5]"] ;
109 -> 111 ;
112 [label="previous <= 4.5\ngini = 0.5\nsamples = 2\nvalue = [1, 1]"] ;
106 -> 112 ;
113 [label="gini = 0.0\nsamples = 1\nvalue = [0, 1]"] ;
112 -> 113 ;
114 [label="gini = 0.0\nsamples = 1\nvalue = [1, 0]"] ;
112 -> 114 ;
115 [label="age <= 61.5\ngini = 0.257\nsamples = 33\nvalue = [5, 28]"] ;
105 -> 115 ;
116 [label="previous <= 5.0\ngini = 0.219\nsamples = 32\nvalue = [4, 28]"] ;
115 -> 116 ;
117 [label="day <= 28.5\ngini = 0.133\nsamples = 28\nvalue = [2, 26]"] ;
116 -> 117 ;
118 [label="gini = 0.074\nsamples = 26\nvalue = [1, 25]"] ;
117 -> 118 ;
119 [label="gini = 0.5\nsamples = 2\nvalue = [1, 1]"] ;
117 -> 119 ;
120 [label="previous <= 7.0\ngini = 0.5\nsamples = 4\nvalue = [2, 2]"] ;
116 -> 120 ;
121 [label="gini = 0.0\nsamples = 2\nvalue = [2, 0]"] ;
120 -> 121 ;
122 [label="gini = 0.0\nsamples = 2\nvalue = [0, 2]"] ;
120 -> 122 ;
123 [label="gini = 0.0\nsamples = 1\nvalue = [1, 0]"] ;
115 -> 123 ;
124 [label="duration <= 408.5\ngini = 0.428\nsamples = 4802\nvalue = [1493, 3309]"] ;
0 -> 124 [labeldistance=2.5, labelangle=-45, headlabel="False"] ;
125 [label="poutcome <= 0.5\ngini = 0.496\nsamples = 2249\nvalue = [1027, 1222]"] ;
124 -> 125 ;
126 [label="housing <= 0.5\ngini = 0.494\nsamples = 1775\nvalue = [981, 794]"] ;
125 -> 126 ;
127 [label="loan <= 0.5\ngini = 0.48\nsamples = 985\nvalue = [393, 592]"] ;
126 -> 127 ;
128 [label="age <= 60.5\ngini = 0.459\nsamples = 887\nvalue = [316, 571]"] ;
127 -> 128 ;
129 [label="age <= 29.5\ngini = 0.477\nsamples = 771\nvalue = [303, 468]"] ;
128 -> 129 ;
130 [label="previous <= 5.0\ngini = 0.298\nsamples = 148\nvalue = [27, 121]"] ;
129 -> 130 ;
131 [label="gini = 0.284\nsamples = 146\nvalue = [25, 121]"] ;
130 -> 131 ;
132 [label="gini = 0.0\nsamples = 2\nvalue = [2, 0]"] ;
130 -> 132 ;
133 [label="balance <= 145.5\ngini = 0.494\nsamples = 623\nvalue = [276, 347]"] ;
129 -> 133 ;
134 [label="gini = 0.463\nsamples = 132\nvalue = [84, 48]"] ;
133 -> 134 ;
135 [label="gini = 0.476\nsamples = 491\nvalue = [192, 299]"] ;
133 -> 135 ;
136 [label="pdays <= 90.0\ngini = 0.199\nsamples = 116\nvalue = [13, 103]"] ;
128 -> 136 ;
137 [label="age <= 74.5\ngini = 0.131\nsamples = 99\nvalue = [7, 92]"] ;
136 -> 137 ;
138 [label="gini = 0.028\nsamples = 71\nvalue = [1, 70]"] ;
137 -> 138 ;
139 [label="gini = 0.337\nsamples = 28\nvalue = [6, 22]"] ;
137 -> 139 ;
140 [label="balance <= 3531.0\ngini = 0.457\nsamples = 17\nvalue = [6, 11]"] ;
136 -> 140 ;
141 [label="gini = 0.337\nsamples = 14\nvalue = [3, 11]"] ;
140 -> 141 ;
142 [label="gini = 0.0\nsamples = 3\nvalue = [3, 0]"] ;
140 -> 142 ;
143 [label="month <= 0.5\ngini = 0.337\nsamples = 98\nvalue = [77, 21]"] ;
127 -> 143 ;
144 [label="gini = 0.0\nsamples = 6\nvalue = [0, 6]"] ;
143 -> 144 ;
145 [label="month <= 9.5\ngini = 0.273\nsamples = 92\nvalue = [77, 15]"] ;
143 -> 145 ;
146 [label="education <= 1.5\ngini = 0.233\nsamples = 89\nvalue = [77, 12]"] ;
145 -> 146 ;
147 [label="gini = 0.134\nsamples = 69\nvalue = [64, 5]"] ;
146 -> 147 ;
148 [label="gini = 0.455\nsamples = 20\nvalue = [13, 7]"] ;
146 -> 148 ;
149 [label="gini = 0.0\nsamples = 3\nvalue = [0, 3]"] ;
145 -> 149 ;
150 [label="month <= 9.5\ngini = 0.381\nsamples = 790\nvalue = [588, 202]"] ;
126 -> 150 ;
151 [label="month <= 7.5\ngini = 0.357\nsamples = 765\nvalue = [587, 178]"] ;
150 -> 151 ;
152 [label="previous <= 1.5\ngini = 0.472\nsamples = 328\nvalue = [203, 125]"] ;
151 -> 152 ;
153 [label="month <= 6.5\ngini = 0.432\nsamples = 279\nvalue = [191, 88]"] ;
152 -> 153 ;
154 [label="gini = 0.407\nsamples = 267\nvalue = [191, 76]"] ;
153 -> 154 ;
155 [label="gini = 0.0\nsamples = 12\nvalue = [0, 12]"] ;
153 -> 155 ;
156 [label="month <= 0.5\ngini = 0.37\nsamples = 49\nvalue = [12, 37]"] ;
152 -> 156 ;
157 [label="gini = 0.498\nsamples = 15\nvalue = [8, 7]"] ;
156 -> 157 ;
158 [label="gini = 0.208\nsamples = 34\nvalue = [4, 30]"] ;
156 -> 158 ;
159 [label="duration <= 344.5\ngini = 0.213\nsamples = 437\nvalue = [384, 53]"] ;
151 -> 159 ;
160 [label="previous <= 0.5\ngini = 0.151\nsamples = 353\nvalue = [324, 29]"] ;
159 -> 160 ;
161 [label="gini = 0.107\nsamples = 300\nvalue = [283, 17]"] ;
160 -> 161 ;
162 [label="gini = 0.35\nsamples = 53\nvalue = [41, 12]"] ;
160 -> 162 ;
163 [label="day <= 4.5\ngini = 0.408\nsamples = 84\nvalue = [60, 24]"] ;
159 -> 163 ;
164 [label="gini = 0.0\nsamples = 3\nvalue = [0, 3]"] ;
163 -> 164 ;
165 [label="gini = 0.384\nsamples = 81\nvalue = [60, 21]"] ;
163 -> 165 ;
166 [label="day <= 5.0\ngini = 0.077\nsamples = 25\nvalue = [1, 24]"] ;
150 -> 166 ;
167 [label="gini = 0.0\nsamples = 1\nvalue = [1, 0]"] ;
166 -> 167 ;
168 [label="gini = 0.0\nsamples = 24\nvalue = [0, 24]"] ;
166 -> 168 ;
169 [label="poutcome <= 1.5\ngini = 0.175\nsamples = 474\nvalue = [46, 428]"] ;
125 -> 169 ;
170 [label="housing <= 0.5\ngini = 0.408\nsamples = 119\nvalue = [34, 85]"] ;
169 -> 170 ;
171 [label="month <= 4.5\ngini = 0.231\nsamples = 75\nvalue = [10, 65]"] ;
170 -> 171 ;
172 [label="age <= 52.0\ngini = 0.455\nsamples = 20\nvalue = [7, 13]"] ;
171 -> 172 ;
173 [label="month <= 2.5\ngini = 0.305\nsamples = 16\nvalue = [3, 13]"] ;
172 -> 173 ;
174 [label="gini = 0.0\nsamples = 11\nvalue = [0, 11]"] ;
173 -> 174 ;
175 [label="gini = 0.48\nsamples = 5\nvalue = [3, 2]"] ;
173 -> 175 ;
176 [label="gini = 0.0\nsamples = 4\nvalue = [4, 0]"] ;
172 -> 176 ;
177 [label="day <= 11.0\ngini = 0.103\nsamples = 55\nvalue = [3, 52]"] ;
171 -> 177 ;
178 [label="balance <= 1021.0\ngini = 0.355\nsamples = 13\nvalue = [3, 10]"] ;
177 -> 178 ;
179 [label="gini = 0.0\nsamples = 7\nvalue = [0, 7]"] ;
178 -> 179 ;
180 [label="gini = 0.5\nsamples = 6\nvalue = [3, 3]"] ;
178 -> 180 ;
181 [label="gini = 0.0\nsamples = 42\nvalue = [0, 42]"] ;
177 -> 181 ;
182 [label="age <= 32.5\ngini = 0.496\nsamples = 44\nvalue = [24, 20]"] ;
170 -> 182 ;
183 [label="day <= 20.0\ngini = 0.219\nsamples = 16\nvalue = [14, 2]"] ;
182 -> 183 ;
184 [label="gini = 0.0\nsamples = 10\nvalue = [10, 0]"] ;
183 -> 184 ;
185 [label="balance <= 729.5\ngini = 0.444\nsamples = 6\nvalue = [4, 2]"] ;
183 -> 185 ;
186 [label="gini = 0.0\nsamples = 3\nvalue = [3, 0]"] ;
185 -> 186 ;
187 [label="gini = 0.444\nsamples = 3\nvalue = [1, 2]"] ;
185 -> 187 ;
188 [label="education <= 1.5\ngini = 0.459\nsamples = 28\nvalue = [10, 18]"] ;
182 -> 188 ;
189 [label="balance <= 1425.0\ngini = 0.499\nsamples = 19\nvalue = [10, 9]"] ;
188 -> 189 ;
190 [label="gini = 0.32\nsamples = 10\nvalue = [8, 2]"] ;
189 -> 190 ;
191 [label="gini = 0.346\nsamples = 9\nvalue = [2, 7]"] ;
189 -> 191 ;
192 [label="gini = 0.0\nsamples = 9\nvalue = [0, 9]"] ;
188 -> 192 ;
193 [label="pdays <= 187.5\ngini = 0.065\nsamples = 355\nvalue = [12, 343]"] ;
169 -> 193 ;
194 [label="balance <= 5526.5\ngini = 0.028\nsamples = 279\nvalue = [4, 275]"] ;
193 -> 194 ;
195 [label="duration <= 391.0\ngini = 0.015\nsamples = 260\nvalue = [2, 258]"] ;
194 -> 195 ;
196 [label="previous <= 6.5\ngini = 0.008\nsamples = 248\nvalue = [1, 247]"] ;
195 -> 196 ;
197 [label="gini = 0.0\nsamples = 227\nvalue = [0, 227]"] ;
196 -> 197 ;
198 [label="gini = 0.091\nsamples = 21\nvalue = [1, 20]"] ;
196 -> 198 ;
199 [label="marital <= 0.5\ngini = 0.153\nsamples = 12\nvalue = [1, 11]"] ;
195 -> 199 ;
200 [label="gini = 0.5\nsamples = 2\nvalue = [1, 1]"] ;
199 -> 200 ;
201 [label="gini = 0.0\nsamples = 10\nvalue = [0, 10]"] ;
199 -> 201 ;
202 [label="balance <= 5792.5\ngini = 0.188\nsamples = 19\nvalue = [2, 17]"] ;
194 -> 202 ;
203 [label="gini = 0.0\nsamples = 1\nvalue = [1, 0]"] ;
202 -> 203 ;
204 [label="duration <= 249.5\ngini = 0.105\nsamples = 18\nvalue = [1, 17]"] ;
202 -> 204 ;
205 [label="gini = 0.375\nsamples = 4\nvalue = [1, 3]"] ;
204 -> 205 ;
206 [label="gini = 0.0\nsamples = 14\nvalue = [0, 14]"] ;
204 -> 206 ;
207 [label="age <= 27.5\ngini = 0.188\nsamples = 76\nvalue = [8, 68]"] ;
193 -> 207 ;
208 [label="gini = 0.0\nsamples = 2\nvalue = [2, 0]"] ;
207 -> 208 ;
209 [label="campaign <= 5.5\ngini = 0.149\nsamples = 74\nvalue = [6, 68]"] ;
207 -> 209 ;
210 [label="duration <= 220.5\ngini = 0.129\nsamples = 72\nvalue = [5, 67]"] ;
209 -> 210 ;
211 [label="gini = 0.408\nsamples = 7\nvalue = [2, 5]"] ;
210 -> 211 ;
212 [label="gini = 0.088\nsamples = 65\nvalue = [3, 62]"] ;
210 -> 212 ;
213 [label="balance <= 229.5\ngini = 0.5\nsamples = 2\nvalue = [1, 1]"] ;
209 -> 213 ;
214 [label="gini = 0.0\nsamples = 1\nvalue = [0, 1]"] ;
213 -> 214 ;
215 [label="gini = 0.0\nsamples = 1\nvalue = [1, 0]"] ;
213 -> 215 ;
216 [label="duration <= 694.5\ngini = 0.298\nsamples = 2553\nvalue = [466, 2087]"] ;
124 -> 216 ;
217 [label="pdays <= 8.5\ngini = 0.381\nsamples = 1326\nvalue = [340, 986]"] ;
216 -> 217 ;
218 [label="housing <= 0.5\ngini = 0.425\nsamples = 965\nvalue = [296, 669]"] ;
217 -> 218 ;
219 [label="job <= 4.5\ngini = 0.353\nsamples = 511\nvalue = [117, 394]"] ;
218 -> 219 ;
220 [label="campaign <= 1.5\ngini = 0.407\nsamples = 281\nvalue = [80, 201]"] ;
219 -> 220 ;
221 [label="day <= 20.5\ngini = 0.296\nsamples = 94\nvalue = [17, 77]"] ;
220 -> 221 ;
222 [label="gini = 0.391\nsamples = 60\nvalue = [16, 44]"] ;
221 -> 222 ;
223 [label="gini = 0.057\nsamples = 34\nvalue = [1, 33]"] ;
221 -> 223 ;
224 [label="duration <= 570.5\ngini = 0.447\nsamples = 187\nvalue = [63, 124]"] ;
220 -> 224 ;
225 [label="gini = 0.487\nsamples = 105\nvalue = [44, 61]"] ;
224 -> 225 ;
226 [label="gini = 0.356\nsamples = 82\nvalue = [19, 63]"] ;
224 -> 226 ;
227 [label="month <= 4.5\ngini = 0.27\nsamples = 230\nvalue = [37, 193]"] ;
219 -> 227 ;
228 [label="day <= 7.5\ngini = 0.113\nsamples = 100\nvalue = [6, 94]"] ;
227 -> 228 ;
229 [label="gini = 0.302\nsamples = 27\nvalue = [5, 22]"] ;
228 -> 229 ;
230 [label="gini = 0.027\nsamples = 73\nvalue = [1, 72]"] ;
228 -> 230 ;
231 [label="age <= 40.5\ngini = 0.363\nsamples = 130\nvalue = [31, 99]"] ;
227 -> 231 ;
232 [label="gini = 0.245\nsamples = 63\nvalue = [9, 54]"] ;
231 -> 232 ;
233 [label="gini = 0.441\nsamples = 67\nvalue = [22, 45]"] ;
231 -> 233 ;
234 [label="duration <= 522.5\ngini = 0.478\nsamples = 454\nvalue = [179, 275]"] ;
218 -> 234 ;
235 [label="month <= 7.5\ngini = 0.499\nsamples = 185\nvalue = [97, 88]"] ;
234 -> 235 ;
236 [label="balance <= 530.5\ngini = 0.487\nsamples = 86\nvalue = [36, 50]"] ;
235 -> 236 ;
237 [label="gini = 0.395\nsamples = 48\nvalue = [13, 35]"] ;
236 -> 237 ;
238 [label="gini = 0.478\nsamples = 38\nvalue = [23, 15]"] ;
236 -> 238 ;
239 [label="day <= 26.5\ngini = 0.473\nsamples = 99\nvalue = [61, 38]"] ;
235 -> 239 ;
240 [label="gini = 0.49\nsamples = 86\nvalue = [49, 37]"] ;
239 -> 240 ;
241 [label="gini = 0.142\nsamples = 13\nvalue = [12, 1]"] ;
239 -> 241 ;
242 [label="age <= 42.5\ngini = 0.424\nsamples = 269\nvalue = [82, 187]"] ;
234 -> 242 ;
243 [label="age <= 39.5\ngini = 0.371\nsamples = 195\nvalue = [48, 147]"] ;
242 -> 243 ;
244 [label="gini = 0.405\nsamples = 170\nvalue = [48, 122]"] ;
243 -> 244 ;
245 [label="gini = 0.0\nsamples = 25\nvalue = [0, 25]"] ;
243 -> 245 ;
246 [label="month <= 0.5\ngini = 0.497\nsamples = 74\nvalue = [34, 40]"] ;
242 -> 246 ;
247 [label="gini = 0.219\nsamples = 8\nvalue = [7, 1]"] ;
246 -> 247 ;
248 [label="gini = 0.483\nsamples = 66\nvalue = [27, 39]"] ;
246 -> 248 ;
249 [label="poutcome <= 1.5\ngini = 0.214\nsamples = 361\nvalue = [44, 317]"] ;
217 -> 249 ;
250 [label="job <= 1.5\ngini = 0.28\nsamples = 220\nvalue = [37, 183]"] ;
249 -> 250 ;
251 [label="housing <= 0.5\ngini = 0.414\nsamples = 65\nvalue = [19, 46]"] ;
250 -> 251 ;
252 [label="campaign <= 4.5\ngini = 0.117\nsamples = 16\nvalue = [1, 15]"] ;
251 -> 252 ;
253 [label="gini = 0.0\nsamples = 15\nvalue = [0, 15]"] ;
252 -> 253 ;
254 [label="gini = 0.0\nsamples = 1\nvalue = [1, 0]"] ;
252 -> 254 ;
255 [label="duration <= 452.5\ngini = 0.465\nsamples = 49\nvalue = [18, 31]"] ;
251 -> 255 ;
256 [label="gini = 0.444\nsamples = 9\nvalue = [6, 3]"] ;
255 -> 256 ;
257 [label="gini = 0.42\nsamples = 40\nvalue = [12, 28]"] ;
255 -> 257 ;
258 [label="balance <= 251.5\ngini = 0.205\nsamples = 155\nvalue = [18, 137]"] ;
250 -> 258 ;
259 [label="gini = 0.0\nsamples = 42\nvalue = [0, 42]"] ;
258 -> 259 ;
260 [label="pdays <= 129.5\ngini = 0.268\nsamples = 113\nvalue = [18, 95]"] ;
258 -> 260 ;
261 [label="gini = 0.0\nsamples = 25\nvalue = [0, 25]"] ;
260 -> 261 ;
262 [label="gini = 0.325\nsamples = 88\nvalue = [18, 70]"] ;
260 -> 262 ;
263 [label="duration <= 690.5\ngini = 0.094\nsamples = 141\nvalue = [7, 134]"] ;
249 -> 263 ;
264 [label="age <= 26.5\ngini = 0.082\nsamples = 140\nvalue = [6, 134]"] ;
263 -> 264 ;
265 [label="pdays <= 79.0\ngini = 0.346\nsamples = 9\nvalue = [2, 7]"] ;
264 -> 265 ;
266 [label="gini = 0.0\nsamples = 1\nvalue = [1, 0]"] ;
265 -> 266 ;
267 [label="gini = 0.219\nsamples = 8\nvalue = [1, 7]"] ;
265 -> 267 ;
268 [label="balance <= 888.5\ngini = 0.059\nsamples = 131\nvalue = [4, 127]"] ;
264 -> 268 ;
269 [label="gini = 0.0\nsamples = 70\nvalue = [0, 70]"] ;
268 -> 269 ;
270 [label="gini = 0.123\nsamples = 61\nvalue = [4, 57]"] ;
268 -> 270 ;
271 [label="gini = 0.0\nsamples = 1\nvalue = [1, 0]"] ;
263 -> 271 ;
272 [label="balance <= -845.5\ngini = 0.184\nsamples = 1227\nvalue = [126, 1101]"] ;
216 -> 272 ;
273 [label="day <= 21.5\ngini = 0.5\nsamples = 6\nvalue = [3, 3]"] ;
272 -> 273 ;
274 [label="duration <= 1070.5\ngini = 0.375\nsamples = 4\nvalue = [1, 3]"] ;
273 -> 274 ;
275 [label="gini = 0.0\nsamples = 3\nvalue = [0, 3]"] ;
274 -> 275 ;
276 [label="gini = 0.0\nsamples = 1\nvalue = [1, 0]"] ;
274 -> 276 ;
277 [label="gini = 0.0\nsamples = 2\nvalue = [2, 0]"] ;
273 -> 277 ;
278 [label="pdays <= 113.5\ngini = 0.181\nsamples = 1221\nvalue = [123, 1098]"] ;
272 -> 278 ;
279 [label="duration <= 1777.5\ngini = 0.165\nsamples = 1049\nvalue = [95, 954]"] ;
278 -> 279 ;
280 [label="duration <= 1215.0\ngini = 0.155\nsamples = 994\nvalue = [84, 910]"] ;
279 -> 280 ;
281 [label="balance <= 21497.0\ngini = 0.179\nsamples = 814\nvalue = [81, 733]"] ;
280 -> 281 ;
282 [label="gini = 0.176\nsamples = 812\nvalue = [79, 733]"] ;
281 -> 282 ;
283 [label="gini = 0.0\nsamples = 2\nvalue = [2, 0]"] ;
281 -> 283 ;
284 [label="balance <= 7494.0\ngini = 0.033\nsamples = 180\nvalue = [3, 177]"] ;
280 -> 284 ;
285 [label="gini = 0.023\nsamples = 171\nvalue = [2, 169]"] ;
284 -> 285 ;
286 [label="gini = 0.198\nsamples = 9\nvalue = [1, 8]"] ;
284 -> 286 ;
287 [label="day <= 12.5\ngini = 0.32\nsamples = 55\nvalue = [11, 44]"] ;
279 -> 287 ;
288 [label="campaign <= 1.5\ngini = 0.498\nsamples = 17\nvalue = [8, 9]"] ;
287 -> 288 ;
289 [label="gini = 0.0\nsamples = 4\nvalue = [4, 0]"] ;
288 -> 289 ;
290 [label="gini = 0.426\nsamples = 13\nvalue = [4, 9]"] ;
288 -> 290 ;
291 [label="balance <= 5507.0\ngini = 0.145\nsamples = 38\nvalue = [3, 35]"] ;
287 -> 291 ;
292 [label="gini = 0.102\nsamples = 37\nvalue = [2, 35]"] ;
291 -> 292 ;
293 [label="gini = 0.0\nsamples = 1\nvalue = [1, 0]"] ;
291 -> 293 ;
294 [label="pdays <= 133.5\ngini = 0.273\nsamples = 172\nvalue = [28, 144]"] ;
278 -> 294 ;
295 [label="balance <= 834.5\ngini = 0.444\nsamples = 6\nvalue = [4, 2]"] ;
294 -> 295 ;
296 [label="balance <= 0.0\ngini = 0.444\nsamples = 3\nvalue = [1, 2]"] ;
295 -> 296 ;
297 [label="gini = 0.0\nsamples = 1\nvalue = [1, 0]"] ;
296 -> 297 ;
298 [label="gini = 0.0\nsamples = 2\nvalue = [0, 2]"] ;
296 -> 298 ;
299 [label="gini = 0.0\nsamples = 3\nvalue = [3, 0]"] ;
295 -> 299 ;
300 [label="day <= 1.5\ngini = 0.247\nsamples = 166\nvalue = [24, 142]"] ;
294 -> 300 ;
301 [label="pdays <= 185.0\ngini = 0.444\nsamples = 3\nvalue = [2, 1]"] ;
300 -> 301 ;
302 [label="gini = 0.0\nsamples = 1\nvalue = [0, 1]"] ;
301 -> 302 ;
303 [label="gini = 0.0\nsamples = 2\nvalue = [2, 0]"] ;
301 -> 303 ;
304 [label="duration <= 802.0\ngini = 0.234\nsamples = 163\nvalue = [22, 141]"] ;
300 -> 304 ;
305 [label="gini = 0.365\nsamples = 50\nvalue = [12, 38]"] ;
304 -> 305 ;
306 [label="gini = 0.161\nsamples = 113\nvalue = [10, 103]"] ;
304 -> 306 ;
}